<?xml version="1.0"?>
<PMML version="3.2" xmlns="http://www.dmg.org/PMML-3_2" xmlns:xsi="http://www.w3.org/2001/XMLSchema-instance" xsi:schemaLocation="http://www.dmg.org/PMML-3_2 http://www.dmg.org/v3-2/pmml-3-2.xsd">
 <Header copyright="Copyright (c)2012, Concurrent, Inc. (www.concurrentinc.com)" description="RPart Decision Tree Model">
  <Extension name="user" value="ceteri" extender="Rattle/PMML"/>
  <Application name="Rattle/PMML" version="1.2.30"/>
  <Timestamp>2013-01-25 10:01:53</Timestamp>
 </Header>
 <DataDictionary numberOfFields="5">
  <DataField name="species" optype="categorical" dataType="string">
   <Value value="setosa"/>
   <Value value="versicolor"/>
   <Value value="virginica"/>
  </DataField>
  <DataField name="sepal_length" optype="continuous" dataType="double"/>
  <DataField name="sepal_width" optype="continuous" dataType="double"/>
  <DataField name="petal_length" optype="continuous" dataType="double"/>
  <DataField name="petal_width" optype="continuous" dataType="double"/>
 </DataDictionary>
 <TreeModel modelName="RPart_Model" functionName="classification" algorithmName="rpart" splitCharacteristic="binarySplit" missingValueStrategy="defaultChild">
  <MiningSchema>
   <MiningField name="species" usageType="predicted"/>
   <MiningField name="sepal_length" usageType="active"/>
   <MiningField name="sepal_width" usageType="active"/>
   <MiningField name="petal_length" usageType="active"/>
   <MiningField name="petal_width" usageType="active"/>
  </MiningSchema>
  <Output>
   <OutputField name="species" optype="categorical" dataType="string" feature="predictedValue"/>
   <OutputField name="Probability_setosa" optype="continuous" dataType="double" feature="probability" value="setosa"/>
   <OutputField name="Probability_versicolor" optype="continuous" dataType="double" feature="probability" value="versicolor"/>
   <OutputField name="Probability_virginica" optype="continuous" dataType="double" feature="probability" value="virginica"/>
  </Output>
  <Node id="1" score="setosa" recordCount="100" defaultChild="3">
   <True/>
   <ScoreDistribution value="setosa" recordCount="35" confidence="0.35"/>
   <ScoreDistribution value="versicolor" recordCount="34" confidence="0.34"/>
   <ScoreDistribution value="virginica" recordCount="31" confidence="0.31"/>
   <Node id="2" score="setosa" recordCount="35">
    <CompoundPredicate booleanOperator="surrogate">
     <SimplePredicate field="petal_length" operator="lessThan" value="2.45"/>
     <SimplePredicate field="petal_width" operator="lessThan" value="0.75"/>
     <SimplePredicate field="sepal_length" operator="lessThan" value="5.45"/>
     <SimplePredicate field="sepal_width" operator="greaterOrEqual" value="3.25"/>
    </CompoundPredicate>
    <ScoreDistribution value="setosa" recordCount="35" confidence="1"/>
    <ScoreDistribution value="versicolor" recordCount="0" confidence="0"/>
    <ScoreDistribution value="virginica" recordCount="0" confidence="0"/>
   </Node>
   <Node id="3" score="versicolor" recordCount="65" defaultChild="7">
    <CompoundPredicate booleanOperator="surrogate">
     <SimplePredicate field="petal_length" operator="greaterOrEqual" value="2.45"/>
     <SimplePredicate field="petal_width" operator="greaterOrEqual" value="0.75"/>
     <SimplePredicate field="sepal_length" operator="greaterOrEqual" value="5.45"/>
     <SimplePredicate field="sepal_width" operator="lessThan" value="3.25"/>
    </CompoundPredicate>
    <ScoreDistribution value="setosa" recordCount="0" confidence="0"/>
    <ScoreDistribution value="versicolor" recordCount="34" confidence="0.523076923076923"/>
    <ScoreDistribution value="virginica" recordCount="31" confidence="0.476923076923077"/>
    <Node id="6" score="versicolor" recordCount="31">
     <CompoundPredicate booleanOperator="surrogate">
      <SimplePredicate field="petal_length" operator="lessThan" value="4.75"/>
      <SimplePredicate field="petal_width" operator="lessThan" value="1.55"/>
      <SimplePredicate field="sepal_length" operator="lessThan" value="6.25"/>
      <SimplePredicate field="sepal_width" operator="lessThan" value="2.95"/>
     </CompoundPredicate>
     <ScoreDistribution value="setosa" recordCount="0" confidence="0"/>
     <ScoreDistribution value="versicolor" recordCount="31" confidence="1"/>
     <ScoreDistribution value="virginica" recordCount="0" confidence="0"/>
    </Node>
    <Node id="7" score="virginica" recordCount="34">
     <CompoundPredicate booleanOperator="surrogate">
      <SimplePredicate field="petal_length" operator="greaterOrEqual" value="4.75"/>
      <SimplePredicate field="petal_width" operator="greaterOrEqual" value="1.55"/>
      <SimplePredicate field="sepal_length" operator="greaterOrEqual" value="6.25"/>
      <SimplePredicate field="sepal_width" operator="greaterOrEqual" value="2.95"/>
     </CompoundPredicate>
     <ScoreDistribution value="setosa" recordCount="0" confidence="0"/>
     <ScoreDistribution value="versicolor" recordCount="3" confidence="0.0882352941176471"/>
     <ScoreDistribution value="virginica" recordCount="31" confidence="0.911764705882353"/>
    </Node>
   </Node>
  </Node>
 </TreeModel>
</PMML>
