<?xml version="1.0"?>
<PMML version="4.0" xmlns="http://www.dmg.org/PMML-4_0" xmlns:xsi="http://www.w3.org/2001/XMLSchema-instance" xsi:schemaLocation="http://www.dmg.org/PMML-4_0 http://www.dmg.org/v4-0/pmml-4-0.xsd">
 <Header copyright="Copyright (c)2012, Concurrent, Inc. (www.concurrentinc.com)" description="Multinomial Logistic Model">
  <Extension name="user" value="ceteri" extender="Rattle/PMML"/>
  <Application name="Rattle/PMML" version="1.2.30"/>
  <Timestamp>2013-01-10 18:44:35</Timestamp>
 </Header>
 <DataDictionary numberOfFields="5">
  <DataField name="species" optype="categorical" dataType="string">
   <Value value="setosa"/>
   <Value value="versicolor"/>
   <Value value="virginica"/>
  </DataField>
  <DataField name="sepal_length" optype="continuous" dataType="double"/>
  <DataField name="sepal_width" optype="continuous" dataType="double"/>
  <DataField name="petal_length" optype="continuous" dataType="double"/>
  <DataField name="petal_width" optype="continuous" dataType="double"/>
 </DataDictionary>
 <RegressionModel modelName="multinom_Model" functionName="classification" algorithmName="multinom" normalizationMethod="softmax">
  <MiningSchema>
   <MiningField name="species" usageType="predicted"/>
   <MiningField name="sepal_length" usageType="active"/>
   <MiningField name="sepal_width" usageType="active"/>
   <MiningField name="petal_length" usageType="active"/>
   <MiningField name="petal_width" usageType="active"/>
  </MiningSchema>
  <Output>
   <OutputField name="species" feature="predictedValue"/>
   <OutputField name="Probability_setosa" optype="continuous" dataType="double" feature="probability" value="setosa"/>
   <OutputField name="Probability_versicolor" optype="continuous" dataType="double" feature="probability" value="versicolor"/>
   <OutputField name="Probability_virginica" optype="continuous" dataType="double" feature="probability" value="virginica"/>
  </Output>
  <RegressionTable intercept="15.8438416741404" targetCategory="versicolor">
   <NumericPredictor name="sepal_length" exponent="1" coefficient="-5.22655976253052"/>
   <NumericPredictor name="sepal_width" exponent="1" coefficient="-7.32489224944382"/>
   <NumericPredictor name="petal_length" exponent="1" coefficient="13.1211451114183"/>
   <NumericPredictor name="petal_width" exponent="1" coefficient="-3.00491964346921"/>
  </RegressionTable>
  <RegressionTable intercept="-22.8595250205517" targetCategory="virginica">
   <NumericPredictor name="sepal_length" exponent="1" coefficient="-7.71830227794484"/>
   <NumericPredictor name="sepal_width" exponent="1" coefficient="-11.2120596153716"/>
   <NumericPredictor name="petal_length" exponent="1" coefficient="21.1180694416792"/>
   <NumericPredictor name="petal_width" exponent="1" coefficient="12.6586414099009"/>
  </RegressionTable>
  <RegressionTable intercept="0.0" targetCategory="setosa"/>
 </RegressionModel>
</PMML>
