<?xml version="1.0"?>
<PMML version="3.2" xmlns="http://www.dmg.org/PMML-3_2" xmlns:xsi="http://www.w3.org/2001/XMLSchema-instance" xsi:schemaLocation="http://www.dmg.org/PMML-3_2 http://www.dmg.org/v3-2/pmml-3-2.xsd">
 <Header copyright="Copyright (c)2012, Concurrent, Inc. (www.concurrentinc.com)" description="Neural Network PMML Model">
  <Extension name="user" value="ceteri" extender="Rattle/PMML"/>
  <Application name="Rattle/PMML" version="1.2.30"/>
  <Timestamp>2013-01-10 18:44:35</Timestamp>
 </Header>
 <DataDictionary numberOfFields="5">
  <DataField name="species" optype="categorical" dataType="string">
   <Value value="setosa"/>
   <Value value="versicolor"/>
   <Value value="virginica"/>
  </DataField>
  <DataField name="Sepal.L." optype="continuous" dataType="double"/>
  <DataField name="Sepal.W." optype="continuous" dataType="double"/>
  <DataField name="Petal.L." optype="continuous" dataType="double"/>
  <DataField name="Petal.W." optype="continuous" dataType="double"/>
 </DataDictionary>
 <NeuralNetwork modelName="NeuralNet_model" functionName="classification" numberOfLayers="2" activationFunction="logistic">
  <MiningSchema>
   <MiningField name="species" usageType="predicted"/>
   <MiningField name="Sepal.L." usageType="active"/>
   <MiningField name="Sepal.W." usageType="active"/>
   <MiningField name="Petal.L." usageType="active"/>
   <MiningField name="Petal.W." usageType="active"/>
  </MiningSchema>
  <Output>
   <OutputField name="species" feature="predictedValue"/>
   <OutputField name="Probability_setosa" optype="continuous" dataType="double" feature="probability" value="setosa"/>
   <OutputField name="Probability_versicolor" optype="continuous" dataType="double" feature="probability" value="versicolor"/>
   <OutputField name="Probability_virginica" optype="continuous" dataType="double" feature="probability" value="virginica"/>
  </Output>
  <NeuralInputs numberOfInputs="4">
   <NeuralInput id="1">
    <DerivedField name="derivedNI_Sepal.L." optype="continuous" dataType="double">
     <FieldRef field="Sepal.L."/>
    </DerivedField>
   </NeuralInput>
   <NeuralInput id="2">
    <DerivedField name="derivedNI_Sepal.W." optype="continuous" dataType="double">
     <FieldRef field="Sepal.W."/>
    </DerivedField>
   </NeuralInput>
   <NeuralInput id="3">
    <DerivedField name="derivedNI_Petal.L." optype="continuous" dataType="double">
     <FieldRef field="Petal.L."/>
    </DerivedField>
   </NeuralInput>
   <NeuralInput id="4">
    <DerivedField name="derivedNI_Petal.W." optype="continuous" dataType="double">
     <FieldRef field="Petal.W."/>
    </DerivedField>
   </NeuralInput>
  </NeuralInputs>
  <NeuralLayer numberOfNeurons="2">
   <Neuron id="5" bias="0.239425463057673">
    <Con from="1" weight="0.394387545064422"/>
    <Con from="2" weight="2.06654483647276"/>
    <Con from="3" weight="-2.85506696261159"/>
    <Con from="4" weight="-1.53635490626491"/>
   </Neuron>
   <Neuron id="6" bias="10.8731900969824">
    <Con from="1" weight="4.22662121160708"/>
    <Con from="2" weight="0.9726228013434"/>
    <Con from="3" weight="-6.22726130674197"/>
    <Con from="4" weight="-5.77384066302936"/>
   </Neuron>
  </NeuralLayer>
  <NeuralLayer numberOfNeurons="3" activationFunction="identity" normalizationMethod="softmax">
   <Neuron id="7" bias="-3.78421491222094">
    <Con from="5" weight="8.76988349990219"/>
    <Con from="6" weight="1.50018498063704"/>
   </Neuron>
   <Neuron id="8" bias="-2.80657711459215">
    <Con from="5" weight="-8.37728634183071"/>
    <Con from="6" weight="9.38511221714418"/>
   </Neuron>
   <Neuron id="9" bias="6.59079126294971">
    <Con from="5" weight="-0.392594925586761"/>
    <Con from="6" weight="-10.8852794488822"/>
   </Neuron>
  </NeuralLayer>
  <NeuralOutputs numberOfOutputs="3">
   <NeuralOutput outputNeuron="7">
    <DerivedField name="derivedNO_species" optype="continuous" dataType="double">
     <NormDiscrete field="species" value="setosa"/>
    </DerivedField>
   </NeuralOutput>
   <NeuralOutput outputNeuron="8">
    <DerivedField name="derivedNO_species" optype="continuous" dataType="double">
     <NormDiscrete field="species" value="versicolor"/>
    </DerivedField>
   </NeuralOutput>
   <NeuralOutput outputNeuron="9">
    <DerivedField name="derivedNO_species" optype="continuous" dataType="double">
     <NormDiscrete field="species" value="virginica"/>
    </DerivedField>
   </NeuralOutput>
  </NeuralOutputs>
 </NeuralNetwork>
</PMML>
