<?xml version="1.0"?>
<PMML version="3.2" xmlns="http://www.dmg.org/PMML-3_2" xmlns:xsi="http://www.w3.org/2001/XMLSchema-instance" xsi:schemaLocation="http://www.dmg.org/PMML-3_2 http://www.dmg.org/v3-2/pmml-3-2.xsd">
 <Header copyright="Copyright (c)2012, Concurrent, Inc. (www.concurrentinc.com)" description="Linear Regression Model">
  <Extension name="user" value="ceteri" extender="Rattle/PMML"/>
  <Application name="Rattle/PMML" version="1.2.30"/>
  <Timestamp>2013-01-25 10:01:53</Timestamp>
 </Header>
 <DataDictionary numberOfFields="5">
  <DataField name="sepal_length" optype="continuous" dataType="double"/>
  <DataField name="sepal_width" optype="continuous" dataType="double"/>
  <DataField name="petal_length" optype="continuous" dataType="double"/>
  <DataField name="petal_width" optype="continuous" dataType="double"/>
  <DataField name="species" optype="categorical" dataType="string">
   <Value value="setosa"/>
   <Value value="versicolor"/>
   <Value value="virginica"/>
  </DataField>
 </DataDictionary>
 <RegressionModel modelName="Linear_Regression_Model" functionName="regression" algorithmName="least squares" targetFieldName="sepal_length">
  <MiningSchema>
   <MiningField name="sepal_length" usageType="predicted"/>
   <MiningField name="sepal_width" usageType="active"/>
   <MiningField name="petal_length" usageType="active"/>
   <MiningField name="petal_width" usageType="active"/>
   <MiningField name="species" usageType="active"/>
  </MiningSchema>
  <RegressionTable intercept="2.24166872421148">
   <NumericPredictor name="sepal_width" exponent="1" coefficient="0.53448203205212"/>
   <NumericPredictor name="petal_length" exponent="1" coefficient="0.691035562908626"/>
   <NumericPredictor name="petal_width" exponent="1" coefficient="-0.21488157609202"/>
   <CategoricalPredictor name="species" value="setosa" coefficient="0"/>
   <CategoricalPredictor name="species" value="versicolor" coefficient="-0.43150751368126"/>
   <CategoricalPredictor name="species" value="virginica" coefficient="-0.61868924203063"/>
  </RegressionTable>
 </RegressionModel>
</PMML>
